{
  "input_nodes": 7,
  "hidden_nodes": 10,
  "output_nodes": 2,
  "weights_ih": {
    "rows": 10,
    "cols": 7,
    "data": [
      [
        -0.896215852233016,
        0.6829287757858581,
        -0.3371708454333653,
        -0.8711086080151832,
        0.47749311187056936,
        0.6983748864979382,
        -0.1210549279786278
      ],
      [
        -0.7580590860571035,
        1.5659782079304596,
        -0.5496745667578691,
        0.6899038343439013,
        0.324200213742516,
        -1.3516777319807827,
        0.4491321001995122
      ],
      [
        -0.40219237894460175,
        -0.7635772760537766,
        0.40581606042875096,
        1.2706420766089273,
        1.2188495586266064,
        -0.24807792322304378,
        0.15276456518683948
      ],
      [
        1.0504170063208698,
        -0.6407314810248135,
        0.7142161229986199,
        0.3321855209972393,
        0.870555390148113,
        1.0681218542697724,
        -0.7253424172715441
      ],
      [
        -0.04142779955195084,
        -0.960891955707675,
        0.008693239875066693,
        -0.740584530812193,
        0.753566003535941,
        -1.0536838959960995,
        0.16148064289821554
      ],
      [
        -0.06987842116043538,
        -0.44790614395088546,
        0.3335220602272087,
        -0.36416675299709195,
        0.8264154973772908,
        -0.35699279150327906,
        -0.2511705305115755
      ],
      [
        1.0052696304080682,
        0.0044508263907323264,
        1.2245556466532894,
        -0.9397783707701753,
        -0.551817559678238,
        -0.3262332765585685,
        -1.0047788443293766
      ],
      [
        -1.248388991720103,
        0.9140250171571714,
        0.6016149907341748,
        0.004068194171454924,
        0.05069718263492792,
        -0.4766843649082588,
        -0.6258439904137575
      ],
      [
        -1.3569854322797261,
        -0.3656042653066572,
        0.8557332730863445,
        -0.5694189647017143,
        -0.9975479307810934,
        -0.11084155777332919,
        0.9714450625815336
      ],
      [
        1.762834085502208,
        -1.4452540680047783,
        -0.01632147065349901,
        0.10640402203960486,
        0.03642432853335499,
        -0.061709874758081505,
        0.02738490924666745
      ]
    ]
  },
  "weights_ho": {
    "rows": 2,
    "cols": 10,
    "data": [
      [
        0.08385368374677438,
        -0.1735718787711182,
        0.9261605283712157,
        0.026665259411533956,
        0.7295807110739437,
        -0.5548540522924448,
        -0.4509368971449854,
        -0.7228293920840992,
        -1.2057645954435114,
        0.3357044987954137
      ],
      [
        0.694343518871263,
        0.9013698531029386,
        -0.337148453288553,
        -0.14184124377893076,
        -0.23315853676692447,
        -0.8420017114175898,
        -0.8088168192941664,
        0.9865865276964723,
        -0.3884254453889818,
        -1.0244318260331324
      ]
    ]
  },
  "bias_h": {
    "rows": 10,
    "cols": 1,
    "data": [
      [
        -0.5138397605834233
      ],
      [
        0.9230611375574926
      ],
      [
        -1.100281769050516
      ],
      [
        0.5639287942372481
      ],
      [
        -0.9674376785754901
      ],
      [
        -0.31012955679835774
      ],
      [
        0.38489296781074456
      ],
      [
        0.6651779255220072
      ],
      [
        -0.4420502036188336
      ],
      [
        0.11168376703645377
      ]
    ]
  },
  "bias_o": {
    "rows": 2,
    "cols": 1,
    "data": [
      [
        1.2434150556546963
      ],
      [
        0.9404907038440949
      ]
    ]
  },
  "learning_rate": 0.1,
  "activation_function": {}
}
